<?xml version="1.0"?>
<opencv_storage>
<cascade>
  <stageType>BOOST</stageType>
  <featureType>HAAR</featureType>
  <height>24</height>
  <width>24</width>
  <stageParams>
    <boostType>GAB</boostType>
    <minHitRate>9.9500000476837158e-01</minHitRate>
    <maxFalseAlarm>5.0000000000000000e-01</maxFalseAlarm>
    <weightTrimRate>9.4999998807907104e-01</weightTrimRate>
    <maxDepth>1</maxDepth>
    <maxWeakCount>100</maxWeakCount></stageParams>
  <featureParams>
    <maxCatCount>0</maxCatCount>
    <featSize>1</featSize>
    <mode>BASIC</mode></featureParams>
  <stageNum>15</stageNum>
  <stages>
    <!-- stage 0 -->
    <_>
      <maxWeakCount>2</maxWeakCount>
      <stageThreshold>-5.7990777492523193e-01</stageThreshold>
      <weakClassifiers>
        <_>
          <internalNodes>
            0 -1 3 -2.1123027801513672e-01</internalNodes>
          <leafValues>
            9.2592591047286987e-01 -8.3850932121276855e-01</leafValues></_>
        <_>
          <internalNodes>
            0 -1 9 -5.8832672948483378e-05</internalNodes>
          <leafValues>
            -1. 2.5860151648521423e-01</leafValues></_></weakClassifiers></_>
    <!-- stage 1 -->
    <_>
      <maxWeakCount>3</maxWeakCount>
      <stageThreshold>-9.6353250741958618e-01</stageThreshold>
      <weakClassifiers>
        <_>
          <internalNodes>
            0 -1 34 3.2713952660560608e-01</internalNodes>
          <leafValues>
            -8.1595093011856079e-01 9.2000001668930054e-01</leafValues></_>
        <_>
          <internalNodes>
            0 -1 29 2.0419094711542130e-02</internalNodes>
          <leafValues>
            -6.0596418380737305e-01 9.0677887201309204e-01</leafValues></_>
        <_>
          <internalNodes>
            0 -1 8 -2.6585598243400455e-04</internalNodes>
          <leafValues>
            -1. 4.5838260650634766e-01</leafValues></_></weakClassifiers></_>
    <!-- stage 2 -->
    <_>
      <maxWeakCount>3</maxWeakCount>
      <stageThreshold>-7.8700584173202515e-01</stageThreshold>
      <weakClassifiers>
        <_>
          <internalNodes>
            0 -1 2 -6.6080248355865479e-01</internalNodes>
          <leafValues>
            1. -8.1707316637039185e-01</leafValues></_>
        <_>
          <internalNodes>
            0 -1 36 -1.8817339092493057e-02</internalNodes>
          <leafValues>
            7.5809347629547119e-01 -6.3307958841323853e-01</leafValues></_>
        <_>
          <internalNodes>
            0 -1 15 -1.0407033376395702e-02</internalNodes>
          <leafValues>
            6.6314691305160522e-01 -6.8246364593505859e-01</leafValues></_></weakClassifiers></_>
    <!-- stage 3 -->
    <_>
      <maxWeakCount>2</maxWeakCount>
      <stageThreshold>-5.6779778003692627e-01</stageThreshold>
      <weakClassifiers>
        <_>
          <internalNodes>
            0 -1 14 -3.2302433252334595e-01</internalNodes>
          <leafValues>
            1. -8.0606061220169067e-01</leafValues></_>
        <_>
          <internalNodes>
            0 -1 43 -3.1780484277987853e-05</internalNodes>
          <leafValues>
            -1. 2.3826284706592560e-01</leafValues></_></weakClassifiers></_>
    <!-- stage 4 -->
    <_>
      <maxWeakCount>4</maxWeakCount>
      <stageThreshold>-1.0846823453903198e+00</stageThreshold>
      <weakClassifiers>
        <_>
          <internalNodes>
            0 -1 35 2.9589313268661499e-01</internalNodes>
          <leafValues>
            -8.1366461515426636e-01 7.7777779102325439e-01</leafValues></_>
        <_>
          <internalNodes>
            0 -1 1 -2.7694750577211380e-02</internalNodes>
          <leafValues>
            8.7708032131195068e-01 -4.8000714182853699e-01</leafValues></_>
        <_>
          <internalNodes>
            0 -1 27 -1.8214907497167587e-02</internalNodes>
          <leafValues>
            5.9000456333160400e-01 -5.4298728704452515e-01</leafValues></_>
        <_>
          <internalNodes>
            0 -1 40 -1.0457728058099747e-02</internalNodes>
          <leafValues>
            8.4600353240966797e-01 -3.8101512193679810e-01</leafValues></_></weakClassifiers></_>
    <!-- stage 5 -->
    <_>
      <maxWeakCount>2</maxWeakCount>
      <stageThreshold>-6.1348986625671387e-01</stageThreshold>
      <weakClassifiers>
        <_>
          <internalNodes>
            0 -1 26 -5.0225943326950073e-02</internalNodes>
          <leafValues>
            6.5517240762710571e-01 -8.1132078170776367e-01</leafValues></_>
        <_>
          <internalNodes>
            0 -1 39 2.7902256697416306e-03</internalNodes>
          <leafValues>
            1.9783088564872742e-01 -9.3112933635711670e-01</leafValues></_></weakClassifiers></_>
    <!-- stage 6 -->
    <_>
      <maxWeakCount>3</maxWeakCount>
      <stageThreshold>-1.1569629907608032e+00</stageThreshold>
      <weakClassifiers>
        <_>
          <internalNodes>
            0 -1 24 -7.1714863181114197e-02</internalNodes>
          <leafValues>
            5.8823531866073608e-01 -8.4415584802627563e-01</leafValues></_>
        <_>
          <internalNodes>
            0 -1 37 2.4591547116870061e-05</internalNodes>
          <leafValues>
            -7.7445954084396362e-01 3.9985957741737366e-01</leafValues></_>
        <_>
          <internalNodes>
            0 -1 32 1.1707508747349493e-05</internalNodes>
          <leafValues>
            -7.1266674995422363e-01 5.0261163711547852e-01</leafValues></_></weakClassifiers></_>
    <!-- stage 7 -->
    <_>
      <maxWeakCount>2</maxWeakCount>
      <stageThreshold>-6.2155300378799438e-01</stageThreshold>
      <weakClassifiers>
        <_>
          <internalNodes>
            0 -1 0 -8.4267508983612061e-01</internalNodes>
          <leafValues>
            1. -8.0606061220169067e-01</leafValues></_>
        <_>
          <internalNodes>
            0 -1 19 -2.7260363101959229e-02</internalNodes>
          <leafValues>
            1.8450762331485748e-01 -9.2363780736923218e-01</leafValues></_></weakClassifiers></_>
    <!-- stage 8 -->
    <_>
      <maxWeakCount>2</maxWeakCount>
      <stageThreshold>-4.8469671607017517e-01</stageThreshold>
      <weakClassifiers>
        <_>
          <internalNodes>
            0 -1 23 1.9260257482528687e-02</internalNodes>
          <leafValues>
            -7.3255813121795654e-01 1.</leafValues></_>
        <_>
          <internalNodes>
            0 -1 12 -2.3439869983121753e-04</internalNodes>
          <leafValues>
            -1. 2.4786143004894257e-01</leafValues></_></weakClassifiers></_>
    <!-- stage 9 -->
    <_>
      <maxWeakCount>4</maxWeakCount>
      <stageThreshold>-9.6155583858489990e-01</stageThreshold>
      <weakClassifiers>
        <_>
          <internalNodes>
            0 -1 0 -8.9876413345336914e-01</internalNodes>
          <leafValues>
            9.1304349899291992e-01 -7.9393941164016724e-01</leafValues></_>
        <_>
          <internalNodes>
            0 -1 44 -3.7198442441876978e-05</internalNodes>
          <leafValues>
            -8.9848399162292480e-01 2.2414398193359375e-01</leafValues></_>
        <_>
          <internalNodes>
            0 -1 11 2.4392301565967500e-04</internalNodes>
          <leafValues>
            2.8117612004280090e-01 -8.8880079984664917e-01</leafValues></_>
        <_>
          <internalNodes>
            0 -1 21 -5.9833517298102379e-03</internalNodes>
          <leafValues>
            4.9704036116600037e-01 -6.4888745546340942e-01</leafValues></_></weakClassifiers></_>
    <!-- stage 10 -->
    <_>
      <maxWeakCount>4</maxWeakCount>
      <stageThreshold>-1.1599363088607788e+00</stageThreshold>
      <weakClassifiers>
        <_>
          <internalNodes>
            0 -1 16 -1.8607050180435181e-01</internalNodes>
          <leafValues>
            7.5999999046325684e-01 -7.9141104221343994e-01</leafValues></_>
        <_>
          <internalNodes>
            0 -1 20 8.1481572124175727e-05</internalNodes>
          <leafValues>
            1.9336102902889252e-01 -8.9963877201080322e-01</leafValues></_>
        <_>
          <internalNodes>
            0 -1 38 5.3994217887520790e-03</internalNodes>
          <leafValues>
            -8.4608691930770874e-01 2.6819932460784912e-01</leafValues></_>
        <_>
          <internalNodes>
            0 -1 22 -7.0081866579130292e-04</internalNodes>
          <leafValues>
            -1. 2.8420063853263855e-01</leafValues></_></weakClassifiers></_>
    <!-- stage 11 -->
    <_>
      <maxWeakCount>4</maxWeakCount>
      <stageThreshold>-1.0192623138427734e+00</stageThreshold>
      <weakClassifiers>
        <_>
          <internalNodes>
            0 -1 30 8.5134789347648621e-02</internalNodes>
          <leafValues>
            -8.2389938831329346e-01 7.2413790225982666e-01</leafValues></_>
        <_>
          <internalNodes>
            0 -1 41 -5.9484023950062692e-05</internalNodes>
          <leafValues>
            2.3350268602371216e-01 -8.1956815719604492e-01</leafValues></_>
        <_>
          <internalNodes>
            0 -1 13 1.0597892105579376e-04</internalNodes>
          <leafValues>
            3.3400967717170715e-01 -8.7190675735473633e-01</leafValues></_>
        <_>
          <internalNodes>
            0 -1 7 3.6827792064286768e-04</internalNodes>
          <leafValues>
            -6.3943785429000854e-01 4.4304108619689941e-01</leafValues></_></weakClassifiers></_>
    <!-- stage 12 -->
    <_>
      <maxWeakCount>4</maxWeakCount>
      <stageThreshold>-7.0191460847854614e-01</stageThreshold>
      <weakClassifiers>
        <_>
          <internalNodes>
            0 -1 5 -7.0262187719345093e-01</internalNodes>
          <leafValues>
            7.6923078298568726e-01 -8.0246913433074951e-01</leafValues></_>
        <_>
          <internalNodes>
            0 -1 31 1.8126091163139790e-05</internalNodes>
          <leafValues>
            -6.6448271274566650e-01 4.5242887735366821e-01</leafValues></_>
        <_>
          <internalNodes>
            0 -1 25 -2.0286431536078453e-03</internalNodes>
          <leafValues>
            3.3995756506919861e-01 -8.5520148277282715e-01</leafValues></_>
        <_>
          <internalNodes>
            0 -1 17 1.9349718058947474e-04</internalNodes>
          <leafValues>
            -6.4419347047805786e-01 5.0332713127136230e-01</leafValues></_></weakClassifiers></_>
    <!-- stage 13 -->
    <_>
      <maxWeakCount>4</maxWeakCount>
      <stageThreshold>-1.0523947477340698e+00</stageThreshold>
      <weakClassifiers>
        <_>
          <internalNodes>
            0 -1 33 3.7404012680053711e-01</internalNodes>
          <leafValues>
            -7.9746836423873901e-01 5.3333336114883423e-01</leafValues></_>
        <_>
          <internalNodes>
            0 -1 22 1.1375419853720814e-04</internalNodes>
          <leafValues>
            2.9157507419586182e-01 -7.7549654245376587e-01</leafValues></_>
        <_>
          <internalNodes>
            0 -1 6 1.5897155972197652e-03</internalNodes>
          <leafValues>
            2.4899651110172272e-01 -1.</leafValues></_>
        <_>
          <internalNodes>
            0 -1 28 8.5815542843192816e-04</internalNodes>
          <leafValues>
            2.7157360315322876e-01 -1.</leafValues></_></weakClassifiers></_>
    <!-- stage 14 -->
    <_>
      <maxWeakCount>4</maxWeakCount>
      <stageThreshold>-1.2043448686599731e+00</stageThreshold>
      <weakClassifiers>
        <_>
          <internalNodes>
            0 -1 4 -3.6154996603727341e-02</internalNodes>
          <leafValues>
            4.3750000000000000e-01 -7.9487180709838867e-01</leafValues></_>
        <_>
          <internalNodes>
            0 -1 42 -1.9784583128057420e-04</internalNodes>
          <leafValues>
            -9.0666300058364868e-01 2.0154142379760742e-01</leafValues></_>
        <_>
          <internalNodes>
            0 -1 10 2.0110845071030781e-05</internalNodes>
          <leafValues>
            2.8827649354934692e-01 -8.7095361948013306e-01</leafValues></_>
        <_>
          <internalNodes>
            0 -1 18 -7.0635556767228991e-05</internalNodes>
          <leafValues>
            -8.9929103851318359e-01 3.4598311781883240e-01</leafValues></_></weakClassifiers></_></stages>
  <features>
    <_>
      <rects>
        <_>
          0 2 24 21 -1.</_>
        <_>
          8 2 8 21 3.</_></rects>
      <tilted>0</tilted></_>
    <_>
      <rects>
        <_>
          0 3 6 12 -1.</_>
        <_>
          2 3 2 12 3.</_></rects>
      <tilted>0</tilted></_>
    <_>
      <rects>
        <_>
          0 3 24 17 -1.</_>
        <_>
          8 3 8 17 3.</_></rects>
      <tilted>0</tilted></_>
    <_>
      <rects>
        <_>
          0 4 12 17 -1.</_>
        <_>
          6 4 6 17 2.</_></rects>
      <tilted>0</tilted></_>
    <_>
      <rects>
        <_>
          0 6 12 2 -1.</_>
        <_>
          6 6 6 2 2.</_></rects>
      <tilted>0</tilted></_>
    <_>
      <rects>
        <_>
          0 8 24 15 -1.</_>
        <_>
          8 8 8 15 3.</_></rects>
      <tilted>0</tilted></_>
    <_>
      <rects>
        <_>
          0 9 6 6 -1.</_>
        <_>
          0 11 6 2 3.</_></rects>
      <tilted>0</tilted></_>
    <_>
      <rects>
        <_>
          0 9 12 4 -1.</_>
        <_>
          0 11 12 2 2.</_></rects>
      <tilted>0</tilted></_>
    <_>
      <rects>
        <_>
          0 13 7 3 -1.</_>
        <_>
          0 14 7 1 3.</_></rects>
      <tilted>0</tilted></_>
    <_>
      <rects>
        <_>
          0 17 1 6 -1.</_>
        <_>
          0 20 1 3 2.</_></rects>
      <tilted>0</tilted></_>
    <_>
      <rects>
        <_>
          0 21 2 3 -1.</_>
        <_>
          1 21 1 3 2.</_></rects>
      <tilted>0</tilted></_>
    <_>
      <rects>
        <_>
          0 21 4 3 -1.</_>
        <_>
          2 21 2 3 2.</_></rects>
      <tilted>0</tilted></_>
    <_>
      <rects>
        <_>
          0 23 4 1 -1.</_>
        <_>
          2 23 2 1 2.</_></rects>
      <tilted>0</tilted></_>
    <_>
      <rects>
        <_>
          0 23 6 1 -1.</_>
        <_>
          2 23 2 1 3.</_></rects>
      <tilted>0</tilted></_>
    <_>
      <rects>
        <_>
          1 2 12 20 -1.</_>
        <_>
          7 2 6 20 2.</_></rects>
      <tilted>0</tilted></_>
    <_>
      <rects>
        <_>
          1 3 8 10 -1.</_>
        <_>
          1 3 4 5 2.</_>
        <_>
          5 8 4 5 2.</_></rects>
      <tilted>0</tilted></_>
    <_>
      <rects>
        <_>
          1 5 10 14 -1.</_>
        <_>
          6 5 5 14 2.</_></rects>
      <tilted>0</tilted></_>
    <_>
      <rects>
        <_>
          1 7 9 2 -1.</_>
        <_>
          1 8 9 1 2.</_></rects>
      <tilted>0</tilted></_>
    <_>
      <rects>
        <_>
          1 21 3 3 -1.</_>
        <_>
          1 22 3 1 3.</_></rects>
      <tilted>0</tilted></_>
    <_>
      <rects>
        <_>
          2 1 13 21 -1.</_>
        <_>
          2 8 13 7 3.</_></rects>
      <tilted>0</tilted></_>
    <_>
      <rects>
        <_>
          2 2 2 22 -1.</_>
        <_>
          3 2 1 22 2.</_></rects>
      <tilted>0</tilted></_>
    <_>
      <rects>
        <_>
          3 15 7 9 -1.</_>
        <_>
          3 18 7 3 3.</_></rects>
      <tilted>0</tilted></_>
    <_>
      <rects>
        <_>
          5 0 4 1 -1.</_>
        <_>
          7 0 2 1 2.</_></rects>
      <tilted>0</tilted></_>
    <_>
      <rects>
        <_>
          5 22 12 2 -1.</_>
        <_>
          5 23 12 1 2.</_></rects>
      <tilted>0</tilted></_>
    <_>
      <rects>
        <_>
          6 0 8 18 -1.</_>
        <_>
          6 6 8 6 3.</_></rects>
      <tilted>0</tilted></_>
    <_>
      <rects>
        <_>
          6 0 8 22 -1.</_>
        <_>
          6 11 8 11 2.</_></rects>
      <tilted>0</tilted></_>
    <_>
      <rects>
        <_>
          6 1 10 12 -1.</_>
        <_>
          6 5 10 4 3.</_></rects>
      <tilted>0</tilted></_>
    <_>
      <rects>
        <_>
          6 9 6 15 -1.</_>
        <_>
          6 14 6 5 3.</_></rects>
      <tilted>0</tilted></_>
    <_>
      <rects>
        <_>
          6 11 12 2 -1.</_>
        <_>
          6 11 6 1 2.</_>
        <_>
          12 12 6 1 2.</_></rects>
      <tilted>0</tilted></_>
    <_>
      <rects>
        <_>
          7 8 9 6 -1.</_>
        <_>
          10 8 3 6 3.</_></rects>
      <tilted>0</tilted></_>
    <_>
      <rects>
        <_>
          8 16 16 4 -1.</_>
        <_>
          16 16 8 4 2.</_></rects>
      <tilted>0</tilted></_>
    <_>
      <rects>
        <_>
          8 17 2 1 -1.</_>
        <_>
          9 17 1 1 2.</_></rects>
      <tilted>0</tilted></_>
    <_>
      <rects>
        <_>
          9 8 4 2 -1.</_>
        <_>
          9 8 2 1 2.</_>
        <_>
          11 9 2 1 2.</_></rects>
      <tilted>0</tilted></_>
    <_>
      <rects>
        <_>
          10 6 14 17 -1.</_>
        <_>
          17 6 7 17 2.</_></rects>
      <tilted>0</tilted></_>
    <_>
      <rects>
        <_>
          10 7 14 16 -1.</_>
        <_>
          17 7 7 16 2.</_></rects>
      <tilted>0</tilted></_>
    <_>
      <rects>
        <_>
          11 3 12 19 -1.</_>
        <_>
          17 3 6 19 2.</_></rects>
      <tilted>0</tilted></_>
    <_>
      <rects>
        <_>
          11 8 12 3 -1.</_>
        <_>
          15 8 4 3 3.</_></rects>
      <tilted>0</tilted></_>
    <_>
      <rects>
        <_>
          11 12 8 2 -1.</_>
        <_>
          11 13 8 1 2.</_></rects>
      <tilted>0</tilted></_>
    <_>
      <rects>
        <_>
          14 1 10 14 -1.</_>
        <_>
          14 1 5 7 2.</_>
        <_>
          19 8 5 7 2.</_></rects>
      <tilted>0</tilted></_>
    <_>
      <rects>
        <_>
          14 6 9 18 -1.</_>
        <_>
          14 12 9 6 3.</_></rects>
      <tilted>0</tilted></_>
    <_>
      <rects>
        <_>
          15 0 6 6 -1.</_>
        <_>
          15 2 6 2 3.</_></rects>
      <tilted>0</tilted></_>
    <_>
      <rects>
        <_>
          15 9 3 14 -1.</_>
        <_>
          16 9 1 14 3.</_></rects>
      <tilted>0</tilted></_>
    <_>
      <rects>
        <_>
          15 11 2 2 -1.</_>
        <_>
          15 12 2 1 2.</_></rects>
      <tilted>0</tilted></_>
    <_>
      <rects>
        <_>
          17 21 6 2 -1.</_>
        <_>
          19 21 2 2 3.</_></rects>
      <tilted>0</tilted></_>
    <_>
      <rects>
        <_>
          22 11 1 3 -1.</_>
        <_>
          22 12 1 1 3.</_></rects>
      <tilted>0</tilted></_></features></cascade>
</opencv_storage>
